digraph Tree {
node [shape=box] ;
0 [label="Catch_Rate <= 9.0\ngini = 0.119\nsamples = 721\nvalue = [675, 46]"] ;
1 [label="Undiscovered <= 0.5\ngini = 0.269\nsamples = 50\nvalue = [8, 42]"] ;
0 -> 1 [labeldistance=2.5, labelangle=45, headlabel="True"] ;
2 [label="gini = 0.0\nsamples = 4\nvalue = [4, 0]"] ;
1 -> 2 ;
3 [label="Attack <= 73.5\ngini = 0.159\nsamples = 46\nvalue = [4, 42]"] ;
1 -> 3 ;
4 [label="Weight_kg <= 4.807\ngini = 0.444\nsamples = 3\nvalue = [2, 1]"] ;
3 -> 4 ;
5 [label="gini = 0.0\nsamples = 2\nvalue = [2, 0]"] ;
4 -> 5 ;
6 [label="gini = 0.0\nsamples = 1\nvalue = [0, 1]"] ;
4 -> 6 ;
7 [label="Steel <= 0.5\ngini = 0.089\nsamples = 43\nvalue = [2, 41]"] ;
3 -> 7 ;
8 [label="Psychic <= 0.5\ngini = 0.048\nsamples = 41\nvalue = [1, 40]"] ;
7 -> 8 ;
9 [label="gini = 0.0\nsamples = 37\nvalue = [0, 37]"] ;
8 -> 9 ;
10 [label="Attack <= 78.5\ngini = 0.375\nsamples = 4\nvalue = [1, 3]"] ;
8 -> 10 ;
11 [label="gini = 0.0\nsamples = 1\nvalue = [1, 0]"] ;
10 -> 11 ;
12 [label="gini = 0.0\nsamples = 3\nvalue = [0, 3]"] ;
10 -> 12 ;
13 [label="Weight_kg <= 5.238\ngini = 0.5\nsamples = 2\nvalue = [1, 1]"] ;
7 -> 13 ;
14 [label="gini = 0.0\nsamples = 1\nvalue = [1, 0]"] ;
13 -> 14 ;
15 [label="gini = 0.0\nsamples = 1\nvalue = [0, 1]"] ;
13 -> 15 ;
16 [label="Sp_Atk <= 130.5\ngini = 0.012\nsamples = 671\nvalue = [667, 4]"] ;
0 -> 16 [labeldistance=2.5, labelangle=-45, headlabel="False"] ;
17 [label="Height_m <= -1.407\ngini = 0.003\nsamples = 664\nvalue = [663, 1]"] ;
16 -> 17 ;
18 [label="Attack <= 90.0\ngini = 0.124\nsamples = 15\nvalue = [14, 1]"] ;
17 -> 18 ;
19 [label="gini = 0.0\nsamples = 14\nvalue = [14, 0]"] ;
18 -> 19 ;
20 [label="gini = 0.0\nsamples = 1\nvalue = [0, 1]"] ;
18 -> 20 ;
21 [label="gini = 0.0\nsamples = 649\nvalue = [649, 0]"] ;
17 -> 21 ;
22 [label="Height_m <= 0.784\ngini = 0.49\nsamples = 7\nvalue = [4, 3]"] ;
16 -> 22 ;
23 [label="gini = 0.0\nsamples = 4\nvalue = [4, 0]"] ;
22 -> 23 ;
24 [label="gini = 0.0\nsamples = 3\nvalue = [0, 3]"] ;
22 -> 24 ;
}